svm_type c_svc
kernel_type rbf
gamma 0.0001
nr_class 2
total_sv 183
rho 0.437932
label 1 0
nr_sv 93 90
SV
10 1:0 2:0 3:0 4:0 5:11.290894 6:0 7:0 8:0 9:0 10:0 11:5.7300998 12:0 13:0 14:0 15:0 
10 1:0 2:0 3:0 4:0 5:11.290894 6:0 7:0 8:0 9:0 10:0 11:5.7300998 12:5.1761497 13:0 14:0 15:0 
10 1:0 2:0 3:0 4:0 5:5.6454469 6:0 7:0 8:0 9:0 10:0 11:5.7300998 12:5.1761497 13:0 14:0 15:0 
10 1:0 2:0 3:0 4:0 5:0 6:0 7:0 8:0 9:0 10:0 11:5.7300998 12:5.1761497 13:0 14:0 15:0 
10 1:1.0986123 2:0 3:0 4:0 5:5.6454469 6:0 7:0 8:0 9:0 10:0 11:11.4602 12:10.352299 13:0 14:0 15:0 
10 1:0 2:0 3:4.1896547 4:0 5:11.290894 6:0 7:0 8:0 9:0 10:0 11:5.7300998 12:0 13:0 14:0 15:0 
10 1:0 2:0 3:0 4:0 5:0 6:0 7:0 8:0 9:0 10:0 11:5.7300998 12:0 13:0 14:0 15:0 
10 1:0 2:0 3:0 4:0 5:0 6:0 7:0 8:0 9:0 10:3.871201 11:11.4602 12:5.1761497 13:0 14:0 15:0 
10 1:0 2:0 3:0 4:0 5:11.290894 6:0 7:0 8:0 9:0 10:0 11:5.7300998 12:0 13:0 14:0 15:0 
10 1:0 2:0 3:0 4:0 5:11.290894 6:0 7:0 8:0 9:0 10:0 11:5.7300998 12:0 13:0 14:0 15:0 
10 1:0 2:0 3:0 4:0 5:0 6:0 7:0 8:0 9:0 10:0 11:5.7300998 12:0 13:0 14:0 15:0 
10 1:0 2:0 3:0 4:4.4543473 5:5.6454469 6:0 7:0 8:0 9:0 10:3.871201 11:0 12:0 13:0 14:0 15:0 
10 1:0 2:0 3:0 4:0 5:0 6:0 7:0 8:0 9:0 10:0 11:0 12:0 13:0 14:0 15:0 
10 1:0 2:0 3:0 4:0 5:5.6454469 6:0 7:0 8:1.9459101 9:0 10:7.742402 11:0 12:0 13:2.5649494 14:0 15:0 
10 1:0 2:0 3:4.1896547 4:0 5:0 6:0 7:0 8:0 9:3.6635616 10:0 11:0 12:0 13:0 14:0 15:3.3672958 
10 1:0 2:0 3:0 4:4.4543473 5:11.290894 6:0 7:0 8:0 9:0 10:3.871201 11:5.7300998 12:5.1761497 13:0 14:2.7725887 15:0 
10 1:0 2:0 3:4.1896547 4:0 5:0 6:0 7:0 8:0 9:0 10:0 11:0 12:5.1761497 13:2.5649494 14:0 15:0 
10 1:0 2:0 3:0 4:0 5:0 6:0 7:0 8:0 9:3.6635616 10:0 11:5.7300998 12:0 13:0 14:0 15:0 
10 1:0 2:0 3:0 4:0 5:5.6454469 6:0 7:0 8:0 9:3.6635616 10:3.871201 11:5.7300998 12:5.1761497 13:0 14:2.7725887 15:0 
10 1:0 2:0 3:0 4:4.4543473 5:5.6454469 6:0 7:0 8:0 9:0 10:0 11:0 12:0 13:0 14:0 15:0 
10 1:0 2:0 3:0 4:0 5:5.6454469 6:0 7:0 8:0 9:0 10:3.871201 11:5.7300998 12:0 13:0 14:0 15:0 
8.641290237325597 1:0 2:3.2580965 3:0 4:4.4543473 5:5.6454469 6:0 7:0 8:0 9:0 10:0 11:5.7300998 12:0 13:0 14:0 15:0 
10 1:0 2:0 3:0 4:0 5:0 6:0 7:0 8:0 9:0 10:0 11:5.7300998 12:0 13:0 14:0 15:0 
10 1:0 2:0 3:0 4:4.4543473 5:0 6:0 7:0 8:0 9:0 10:0 11:11.4602 12:5.1761497 13:0 14:0 15:0 
10 1:0 2:0 3:0 4:0 5:11.290894 6:0 7:0 8:0 9:0 10:0 11:5.7300998 12:0 13:0 14:0 15:0 
10 1:0 2:0 3:0 4:0 5:5.6454469 6:0 7:0 8:0 9:0 10:0 11:5.7300998 12:5.1761497 13:0 14:0 15:0 
8.406391703155123 1:0 2:0 3:0 4:8.9086946 5:11.290894 6:0 7:0 8:0 9:0 10:0 11:5.7300998 12:0 13:0 14:0 15:0 
10 1:0 2:0 3:0 4:0 5:0 6:0 7:0 8:0 9:0 10:0 11:5.7300998 12:0 13:0 14:0 15:0 
10 1:0 2:0 3:0 4:0 5:5.6454469 6:0 7:0 8:0 9:3.6635616 10:3.871201 11:5.7300998 12:0 13:0 14:0 15:0 
7.099479828124053 1:0 2:0 3:0 4:0 5:0 6:0 7:0 8:0 9:0 10:0 11:5.7300998 12:0 13:0 14:0 15:3.3672958 
10 1:0 2:0 3:0 4:0 5:0 6:0 7:0 8:0 9:0 10:0 11:5.7300998 12:5.1761497 13:0 14:0 15:0 
10 1:0 2:0 3:0 4:0 5:0 6:0 7:0 8:0 9:0 10:0 11:5.7300998 12:0 13:0 14:0 15:0 
10 1:0 2:0 3:0 4:0 5:5.6454469 6:0 7:0 8:0 9:0 10:0 11:5.7300998 12:5.1761497 13:0 14:0 15:0 
10 1:0 2:0 3:0 4:0 5:0 6:0 7:0 8:0 9:0 10:0 11:5.7300998 12:0 13:0 14:0 15:0 
10 1:0 2:0 3:0 4:0 5:0 6:0 7:0 8:0 9:0 10:0 11:5.7300998 12:0 13:0 14:0 15:0 
10 1:0 2:0 3:0 4:0 5:0 6:0 7:0 8:0 9:0 10:0 11:5.7300998 12:0 13:0 14:0 15:0 
10 1:0 2:0 3:0 4:0 5:5.6454469 6:0 7:0 8:0 9:3.6635616 10:0 11:5.7300998 12:5.1761497 13:0 14:0 15:0 
1.065560660901581 1:0 2:0 3:0 4:0 5:11.290894 6:0 7:0 8:1.9459101 9:0 10:0 11:5.7300998 12:0 13:0 14:0 15:0 
10 1:0 2:0 3:0 4:0 5:0 6:0 7:0 8:0 9:3.6635616 10:0 11:5.7300998 12:0 13:0 14:0 15:0 
10 1:0 2:3.2580965 3:0 4:4.4543473 5:0 6:0 7:0 8:0 9:7.3271233 10:0 11:5.7300998 12:0 13:0 14:0 15:0 
10 1:0 2:0 3:0 4:0 5:0 6:0 7:0 8:0 9:0 10:0 11:5.7300998 12:0 13:0 14:0 15:0 
10 1:0 2:3.2580965 3:0 4:4.4543473 5:5.6454469 6:0 7:0 8:0 9:0 10:0 11:5.7300998 12:0 13:0 14:0 15:0 
10 1:0 2:0 3:0 4:0 5:5.6454469 6:0 7:0 8:0 9:0 10:0 11:11.4602 12:5.1761497 13:0 14:2.7725887 15:3.3672958 
3.084195552368161 1:0 2:0 3:0 4:0 5:5.6454469 6:0 7:0 8:0 9:0 10:3.871201 11:5.7300998 12:0 13:0 14:0 15:0 
6.897675985458008 1:0 2:3.2580965 3:0 4:4.4543473 5:5.6454469 6:0 7:0 8:0 9:0 10:3.871201 11:5.7300998 12:0 13:0 14:0 15:0 
3.073143988456746 1:0 2:3.2580965 3:0 4:4.4543473 5:5.6454469 6:0 7:0 8:0 9:0 10:0 11:5.7300998 12:0 13:0 14:0 15:0 
0.0237352364546429 1:0 2:3.2580965 3:0 4:4.4543473 5:5.6454469 6:0 7:0 8:0 9:3.6635616 10:0 11:5.7300998 12:0 13:0 14:0 15:0 
10 1:0 2:0 3:0 4:0 5:0 6:0 7:0 8:0 9:0 10:0 11:5.7300998 12:0 13:0 14:0 15:0 
10 1:0 2:0 3:0 4:0 5:0 6:0 7:0 8:0 9:0 10:0 11:5.7300998 12:0 13:0 14:0 15:0 
10 1:0 2:0 3:0 4:4.4543473 5:0 6:0 7:0 8:0 9:0 10:0 11:11.4602 12:5.1761497 13:0 14:0 15:0 
10 1:0 2:0 3:0 4:0 5:11.290894 6:0 7:0 8:0 9:0 10:0 11:5.7300998 12:0 13:0 14:0 15:0 
7.214123769263363 1:0 2:0 3:0 4:0 5:5.6454469 6:0 7:0 8:0 9:0 10:0 11:5.7300998 12:0 13:0 14:0 15:0 
10 1:0 2:0 3:0 4:0 5:5.6454469 6:0 7:0 8:0 9:0 10:0 11:5.7300998 12:5.1761497 13:0 14:0 15:0 
9.996489722760384 1:0 2:0 3:0 4:8.9086946 5:11.290894 6:0 7:0 8:0 9:0 10:0 11:5.7300998 12:0 13:0 14:0 15:0 
10 1:0 2:0 3:0 4:0 5:11.290894 6:0 7:0 8:0 9:0 10:0 11:5.7300998 12:0 13:0 14:0 15:0 
10 1:0 2:0 3:0 4:0 5:11.290894 6:0 7:0 8:0 9:0 10:0 11:5.7300998 12:5.1761497 13:0 14:0 15:0 
10 1:0 2:0 3:0 4:0 5:5.6454469 6:0 7:0 8:0 9:0 10:0 11:5.7300998 12:5.1761497 13:0 14:0 15:0 
10 1:0 2:0 3:0 4:0 5:0 6:0 7:0 8:0 9:0 10:0 11:5.7300998 12:5.1761497 13:0 14:0 15:0 
10 1:1.0986123 2:0 3:0 4:0 5:5.6454469 6:0 7:0 8:0 9:0 10:0 11:11.4602 12:10.352299 13:0 14:0 15:0 
10 1:0 2:0 3:4.1896547 4:0 5:11.290894 6:0 7:0 8:0 9:0 10:0 11:5.7300998 12:0 13:0 14:0 15:0 
10 1:0 2:0 3:0 4:0 5:0 6:0 7:0 8:0 9:0 10:0 11:5.7300998 12:0 13:0 14:0 15:0 
10 1:0 2:0 3:0 4:0 5:0 6:0 7:0 8:0 9:0 10:3.871201 11:11.4602 12:5.1761497 13:0 14:0 15:0 
10 1:0 2:0 3:0 4:0 5:11.290894 6:0 7:0 8:0 9:0 10:0 11:5.7300998 12:0 13:0 14:0 15:0 
10 1:0 2:0 3:0 4:0 5:11.290894 6:0 7:0 8:0 9:0 10:0 11:5.7300998 12:0 13:0 14:0 15:0 
10 1:0 2:0 3:0 4:0 5:0 6:0 7:0 8:0 9:0 10:0 11:5.7300998 12:0 13:0 14:0 15:0 
10 1:0 2:0 3:0 4:0 5:5.6454469 6:0 7:0 8:0 9:3.6635616 10:3.871201 11:5.7300998 12:0 13:0 14:0 15:0 
8.709930759144912 1:0 2:0 3:0 4:0 5:0 6:0 7:0 8:0 9:0 10:0 11:5.7300998 12:0 13:0 14:0 15:3.3672958 
10 1:0 2:0 3:0 4:0 5:0 6:0 7:0 8:0 9:0 10:0 11:5.7300998 12:5.1761497 13:0 14:0 15:0 
10 1:0 2:0 3:0 4:0 5:0 6:0 7:0 8:0 9:0 10:0 11:5.7300998 12:0 13:0 14:0 15:0 
10 1:0 2:0 3:0 4:0 5:5.6454469 6:0 7:0 8:0 9:0 10:0 11:5.7300998 12:5.1761497 13:0 14:0 15:0 
10 1:0 2:0 3:0 4:0 5:0 6:0 7:0 8:0 9:0 10:0 11:5.7300998 12:0 13:0 14:0 15:0 
10 1:0 2:0 3:0 4:0 5:0 6:0 7:0 8:0 9:0 10:0 11:5.7300998 12:0 13:0 14:0 15:0 
10 1:0 2:0 3:0 4:0 5:0 6:0 7:0 8:0 9:0 10:0 11:5.7300998 12:0 13:0 14:0 15:0 
10 1:0 2:0 3:0 4:0 5:5.6454469 6:0 7:0 8:0 9:3.6635616 10:0 11:5.7300998 12:5.1761497 13:0 14:0 15:0 
10 1:0 2:0 3:0 4:0 5:0 6:0 7:0 8:0 9:3.6635616 10:0 11:5.7300998 12:0 13:0 14:0 15:0 
10 1:0 2:3.2580965 3:0 4:4.4543473 5:0 6:0 7:0 8:0 9:7.3271233 10:0 11:5.7300998 12:0 13:0 14:0 15:0 
0.4299497430673119 1:0 2:3.2580965 3:0 4:4.4543473 5:5.6454469 6:0 7:0 8:0 9:0 10:3.871201 11:5.7300998 12:0 13:0 14:0 15:0 
10 1:0 2:0 3:0 4:0 5:5.6454469 6:0 7:0 8:0 9:0 10:3.871201 11:5.7300998 12:0 13:0 14:0 15:0 
10 1:0 2:3.2580965 3:0 4:4.4543473 5:5.6454469 6:0 7:0 8:0 9:0 10:3.871201 11:5.7300998 12:0 13:0 14:0 15:0 
6.181119515667341 1:0 2:3.2580965 3:0 4:4.4543473 5:5.6454469 6:0 7:0 8:0 9:0 10:0 11:5.7300998 12:0 13:0 14:0 15:0 
0.118605687616684 1:0 2:3.2580965 3:0 4:4.4543473 5:5.6454469 6:0 7:0 8:0 9:3.6635616 10:0 11:5.7300998 12:0 13:0 14:0 15:0 
10 1:0 2:0 3:0 4:0 5:0 6:0 7:0 8:0 9:0 10:0 11:5.7300998 12:0 13:0 14:0 15:0 
10 1:0 2:0 3:0 4:0 5:0 6:0 7:0 8:0 9:0 10:0 11:5.7300998 12:0 13:0 14:0 15:0 
10 1:0 2:0 3:0 4:4.4543473 5:0 6:0 7:0 8:0 9:0 10:0 11:11.4602 12:5.1761497 13:0 14:0 15:0 
10 1:0 2:0 3:0 4:0 5:11.290894 6:0 7:0 8:0 9:0 10:0 11:5.7300998 12:0 13:0 14:0 15:0 
3.482381373029658 1:0 2:0 3:0 4:0 5:5.6454469 6:0 7:0 8:0 9:0 10:0 11:5.7300998 12:0 13:0 14:0 15:0 
10 1:0 2:0 3:0 4:0 5:5.6454469 6:0 7:0 8:0 9:0 10:0 11:5.7300998 12:5.1761497 13:0 14:0 15:0 
10 1:0 2:0 3:0 4:0 5:5.6454469 6:0 7:0 8:0 9:0 10:0 11:5.7300998 12:0 13:0 14:0 15:0 
10 1:0 2:0 3:0 4:8.9086946 5:11.290894 6:0 7:0 8:0 9:0 10:0 11:5.7300998 12:0 13:0 14:0 15:0 
10 1:0 2:0 3:0 4:0 5:11.290894 6:0 7:0 8:0 9:0 10:0 11:5.7300998 12:0 13:0 14:0 15:0 
10 1:0 2:0 3:0 4:0 5:11.290894 6:0 7:0 8:0 9:0 10:0 11:5.7300998 12:5.1761497 13:0 14:0 15:0 
10 1:0 2:0 3:0 4:0 5:5.6454469 6:0 7:0 8:0 9:0 10:0 11:5.7300998 12:5.1761497 13:0 14:0 15:0 
10 1:0 2:0 3:0 4:0 5:0 6:0 7:0 8:0 9:0 10:0 11:5.7300998 12:0 13:0 14:0 15:0 
-10 1:0 2:6.5161931 3:0 4:0 5:11.290894 6:0 7:0 8:0 9:3.6635616 10:3.871201 11:0 12:0 13:0 14:0 15:0 
-10 1:0 2:0 3:0 4:0 5:0 6:0 7:0 8:0 9:0 10:0 11:5.7300998 12:0 13:0 14:0 15:0 
-10 1:0 2:9.7742896 3:0 4:4.4543473 5:0 6:0 7:0 8:0 9:0 10:0 11:0 12:0 13:0 14:0 15:0 
-10 1:0 2:0 3:0 4:0 5:0 6:0 7:0 8:0 9:0 10:0 11:0 12:0 13:0 14:0 15:3.3672958 
-10 1:0 2:3.2580965 3:0 4:0 5:0 6:0 7:0 8:0 9:0 10:0 11:0 12:0 13:0 14:0 15:0 
-10 1:1.0986123 2:0 3:0 4:0 5:0 6:0 7:0 8:0 9:3.6635616 10:0 11:0 12:0 13:0 14:0 15:0 
-10 1:0 2:0 3:0 4:4.4543473 5:0 6:0 7:0 8:0 9:3.6635616 10:0 11:0 12:0 13:0 14:0 15:0 
-10 1:0 2:3.2580965 3:4.1896547 4:0 5:0 6:0 7:0 8:0 9:10.990685 10:3.871201 11:0 12:0 13:0 14:0 15:0 
-10 1:0 2:0 3:0 4:0 5:5.6454469 6:0 7:0 8:0 9:3.6635616 10:0 11:5.7300998 12:5.1761497 13:0 14:0 15:0 
-0.7281765997778007 1:0 2:0 3:0 4:0 5:0 6:0 7:0 8:0 9:0 10:0 11:5.7300998 12:5.1761497 13:0 14:0 15:0 
-10 1:0 2:0 3:0 4:0 5:11.290894 6:0 7:0 8:0 9:0 10:3.871201 11:5.7300998 12:5.1761497 13:0 14:0 15:0 
-10 1:0 2:0 3:0 4:0 5:5.6454469 6:0 7:0 8:0 9:0 10:0 11:5.7300998 12:5.1761497 13:0 14:0 15:0 
-10 1:0 2:0 3:0 4:0 5:5.6454469 6:0 7:0 8:0 9:0 10:0 11:5.7300998 12:5.1761497 13:0 14:0 15:0 
-8.763545093968585 1:0 2:0 3:0 4:0 5:0 6:0 7:0 8:0 9:0 10:0 11:5.7300998 12:5.1761497 13:0 14:0 15:0 
-10 1:0 2:0 3:0 4:8.9086946 5:16.936341 6:0 7:0 8:0 9:0 10:0 11:5.7300998 12:5.1761497 13:0 14:0 15:0 
-9.281079176129133 1:0 2:0 3:0 4:0 5:11.290894 6:0 7:0 8:0 9:0 10:0 11:5.7300998 12:5.1761497 13:0 14:0 15:0 
-10 1:0 2:0 3:0 4:0 5:0 6:0 7:0 8:0 9:0 10:0 11:5.7300998 12:5.1761497 13:0 14:0 15:0 
-10 1:0 2:0 3:0 4:0 5:11.290894 6:0 7:0 8:0 9:0 10:0 11:5.7300998 12:5.1761497 13:0 14:0 15:0 
-10 1:0 2:0 3:0 4:0 5:5.6454469 6:0 7:0 8:0 9:0 10:0 11:5.7300998 12:5.1761497 13:0 14:0 15:0 
-10 1:0 2:0 3:0 4:0 5:0 6:0 7:0 8:0 9:0 10:0 11:5.7300998 12:5.1761497 13:0 14:0 15:0 
-10 1:0 2:0 3:0 4:0 5:11.290894 6:0 7:0 8:0 9:0 10:0 11:5.7300998 12:5.1761497 13:0 14:0 15:0 
-10 1:0 2:0 3:0 4:0 5:0 6:0 7:0 8:0 9:0 10:0 11:5.7300998 12:5.1761497 13:0 14:0 15:0 
-10 1:0 2:0 3:0 4:0 5:5.6454469 6:0 7:0 8:0 9:3.6635616 10:0 11:5.7300998 12:5.1761497 13:0 14:0 15:0 
-10 1:0 2:0 3:0 4:0 5:0 6:0 7:0 8:0 9:0 10:0 11:5.7300998 12:5.1761497 13:0 14:0 15:0 
-10 1:0 2:0 3:0 4:0 5:11.290894 6:0 7:0 8:0 9:0 10:3.871201 11:5.7300998 12:5.1761497 13:0 14:0 15:0 
-10 1:0 2:0 3:0 4:0 5:0 6:0 7:0 8:0 9:0 10:0 11:5.7300998 12:5.1761497 13:0 14:0 15:0 
-10 1:0 2:0 3:0 4:0 5:5.6454469 6:0 7:0 8:0 9:0 10:0 11:5.7300998 12:5.1761497 13:0 14:0 15:0 
-10 1:0 2:0 3:0 4:0 5:5.6454469 6:0 7:0 8:0 9:0 10:0 11:5.7300998 12:5.1761497 13:0 14:0 15:0 
-10 1:0 2:0 3:0 4:0 5:0 6:0 7:0 8:0 9:0 10:0 11:5.7300998 12:5.1761497 13:0 14:0 15:0 
-10 1:0 2:0 3:0 4:0 5:0 6:0 7:0 8:0 9:0 10:0 11:5.7300998 12:5.1761497 13:0 14:0 15:0 
-10 1:0 2:0 3:0 4:8.9086946 5:16.936341 6:0 7:0 8:0 9:0 10:0 11:5.7300998 12:5.1761497 13:0 14:0 15:0 
-10 1:0 2:0 3:0 4:4.4543473 5:11.290894 6:0 7:0 8:0 9:0 10:0 11:5.7300998 12:5.1761497 13:0 14:0 15:0 
-10 1:0 2:0 3:0 4:0 5:0 6:0 7:0 8:0 9:0 10:0 11:5.7300998 12:5.1761497 13:0 14:0 15:0 
-10 1:0 2:0 3:0 4:0 5:11.290894 6:0 7:0 8:0 9:0 10:0 11:5.7300998 12:5.1761497 13:0 14:0 15:0 
-10 1:0 2:0 3:0 4:0 5:5.6454469 6:0 7:0 8:0 9:0 10:0 11:5.7300998 12:5.1761497 13:0 14:0 15:0 
-10 1:0 2:0 3:0 4:0 5:0 6:0 7:0 8:0 9:0 10:0 11:5.7300998 12:5.1761497 13:0 14:0 15:0 
-10 1:0 2:0 3:0 4:0 5:0 6:0 7:0 8:0 9:0 10:0 11:5.7300998 12:5.1761497 13:0 14:0 15:0 
-10 1:0 2:0 3:0 4:0 5:0 6:0 7:0 8:0 9:0 10:0 11:5.7300998 12:5.1761497 13:0 14:0 15:0 
-10 1:0 2:0 3:0 4:4.4543473 5:5.6454469 6:0 7:0 8:0 9:0 10:3.871201 11:5.7300998 12:5.1761497 13:0 14:0 15:0 
-0.6220744356341386 1:0 2:0 3:8.3793095 4:0 5:11.290894 6:0 7:0 8:0 9:0 10:0 11:5.7300998 12:5.1761497 13:0 14:0 15:3.3672958 
-10 1:0 2:0 3:0 4:0 5:0 6:0 7:0 8:0 9:0 10:0 11:5.7300998 12:0 13:0 14:0 15:0 
-10 1:0 2:0 3:0 4:0 5:0 6:0 7:0 8:0 9:0 10:3.871201 11:5.7300998 12:0 13:0 14:0 15:0 
-10 1:0 2:0 3:0 4:4.4543473 5:0 6:0 7:0 8:0 9:0 10:0 11:5.7300998 12:0 13:0 14:0 15:0 
-10 1:0 2:0 3:0 4:0 5:11.290894 6:0 7:0 8:0 9:0 10:0 11:5.7300998 12:5.1761497 13:0 14:0 15:0 
-10 1:0 2:0 3:0 4:0 5:5.6454469 6:0 7:0 8:0 9:3.6635616 10:0 11:5.7300998 12:5.1761497 13:0 14:0 15:3.3672958 
-10 1:0 2:0 3:4.1896547 4:0 5:0 6:0 7:0 8:0 9:7.3271233 10:3.871201 11:5.7300998 12:0 13:0 14:0 15:0 
-10 1:0 2:0 3:0 4:0 5:5.6454469 6:0 7:0 8:0 9:3.6635616 10:0 11:5.7300998 12:5.1761497 13:0 14:0 15:0 
-10 1:0 2:0 3:0 4:0 5:0 6:0 7:0 8:0 9:0 10:0 11:5.7300998 12:5.1761497 13:0 14:0 15:0 
-10 1:0 2:0 3:0 4:0 5:11.290894 6:0 7:0 8:0 9:0 10:3.871201 11:5.7300998 12:5.1761497 13:0 14:0 15:0 
-10 1:0 2:0 3:0 4:0 5:0 6:0 7:0 8:0 9:0 10:0 11:5.7300998 12:5.1761497 13:0 14:0 15:0 
-10 1:0 2:0 3:0 4:0 5:5.6454469 6:0 7:0 8:0 9:0 10:0 11:5.7300998 12:5.1761497 13:0 14:0 15:0 
-10 1:0 2:0 3:0 4:0 5:5.6454469 6:0 7:0 8:0 9:0 10:0 11:5.7300998 12:5.1761497 13:0 14:0 15:0 
-10 1:0 2:0 3:0 4:0 5:0 6:0 7:0 8:0 9:0 10:0 11:5.7300998 12:5.1761497 13:0 14:0 15:0 
-10 1:0 2:0 3:0 4:0 5:0 6:0 7:0 8:0 9:0 10:0 11:5.7300998 12:5.1761497 13:0 14:0 15:0 
-10 1:0 2:0 3:0 4:8.9086946 5:16.936341 6:0 7:0 8:0 9:0 10:0 11:5.7300998 12:5.1761497 13:0 14:0 15:0 
-10 1:0 2:0 3:0 4:4.4543473 5:11.290894 6:0 7:0 8:0 9:0 10:0 11:5.7300998 12:5.1761497 13:0 14:0 15:0 
-10 1:0 2:0 3:0 4:0 5:0 6:0 7:0 8:0 9:0 10:0 11:5.7300998 12:5.1761497 13:0 14:0 15:0 
-10 1:0 2:0 3:0 4:0 5:11.290894 6:0 7:0 8:0 9:0 10:0 11:5.7300998 12:5.1761497 13:0 14:0 15:0 
-10 1:0 2:0 3:0 4:0 5:5.6454469 6:0 7:0 8:0 9:0 10:0 11:5.7300998 12:5.1761497 13:0 14:0 15:0 
-10 1:0 2:0 3:0 4:0 5:0 6:0 7:0 8:0 9:0 10:0 11:5.7300998 12:5.1761497 13:0 14:0 15:0 
-10 1:0 2:0 3:0 4:0 5:0 6:0 7:0 8:0 9:0 10:0 11:5.7300998 12:5.1761497 13:0 14:0 15:0 
-10 1:0 2:0 3:0 4:0 5:0 6:0 7:0 8:0 9:0 10:0 11:5.7300998 12:5.1761497 13:0 14:0 15:0 
-10 1:0 2:0 3:0 4:4.4543473 5:5.6454469 6:0 7:0 8:0 9:0 10:3.871201 11:5.7300998 12:5.1761497 13:0 14:0 15:0 
-10 1:0 2:0 3:0 4:0 5:0 6:0 7:0 8:0 9:0 10:0 11:5.7300998 12:0 13:0 14:0 15:0 
-10 1:0 2:0 3:0 4:0 5:0 6:0 7:0 8:0 9:0 10:3.871201 11:5.7300998 12:0 13:0 14:0 15:0 
-10 1:0 2:0 3:0 4:4.4543473 5:0 6:0 7:0 8:0 9:0 10:0 11:5.7300998 12:0 13:0 14:0 15:0 
-10 1:0 2:0 3:0 4:0 5:11.290894 6:0 7:0 8:0 9:0 10:0 11:5.7300998 12:5.1761497 13:0 14:0 15:0 
-10 1:0 2:0 3:0 4:0 5:5.6454469 6:0 7:0 8:0 9:3.6635616 10:0 11:5.7300998 12:5.1761497 13:0 14:0 15:0 
-10 1:0 2:0 3:0 4:0 5:0 6:0 7:0 8:0 9:0 10:0 11:5.7300998 12:5.1761497 13:0 14:0 15:0 
-10 1:0 2:0 3:0 4:0 5:11.290894 6:0 7:0 8:0 9:0 10:3.871201 11:5.7300998 12:5.1761497 13:0 14:0 15:0 
-10 1:0 2:0 3:0 4:0 5:0 6:0 7:0 8:0 9:0 10:0 11:5.7300998 12:5.1761497 13:0 14:0 15:0 
-10 1:0 2:0 3:0 4:0 5:5.6454469 6:0 7:0 8:0 9:0 10:0 11:5.7300998 12:5.1761497 13:0 14:0 15:0 
-10 1:0 2:0 3:0 4:0 5:5.6454469 6:0 7:0 8:0 9:0 10:0 11:5.7300998 12:5.1761497 13:0 14:0 15:0 
-10 1:0 2:0 3:0 4:0 5:0 6:0 7:0 8:0 9:0 10:0 11:5.7300998 12:5.1761497 13:0 14:0 15:0 
-10 1:0 2:0 3:0 4:0 5:0 6:0 7:0 8:0 9:0 10:0 11:5.7300998 12:5.1761497 13:0 14:0 15:0 
-10 1:0 2:0 3:0 4:8.9086946 5:16.936341 6:0 7:0 8:0 9:0 10:0 11:5.7300998 12:5.1761497 13:0 14:0 15:0 
-10 1:0 2:0 3:0 4:0 5:11.290894 6:0 7:0 8:0 9:0 10:0 11:5.7300998 12:5.1761497 13:0 14:0 15:0 
-10 1:0 2:0 3:0 4:0 5:0 6:0 7:0 8:0 9:0 10:0 11:5.7300998 12:5.1761497 13:0 14:0 15:0 
-10 1:0 2:0 3:0 4:0 5:11.290894 6:0 7:0 8:0 9:0 10:0 11:5.7300998 12:5.1761497 13:0 14:0 15:0 
-10 1:0 2:0 3:0 4:0 5:5.6454469 6:0 7:0 8:0 9:0 10:0 11:5.7300998 12:5.1761497 13:0 14:0 15:0 
-10 1:0 2:0 3:0 4:0 5:0 6:0 7:0 8:0 9:0 10:0 11:5.7300998 12:5.1761497 13:0 14:0 15:0 
-10 1:0 2:0 3:0 4:0 5:0 6:0 7:0 8:0 9:0 10:0 11:5.7300998 12:5.1761497 13:0 14:0 15:0 
-2.846578678511585 1:0 2:0 3:0 4:0 5:0 6:0 7:0 8:0 9:0 10:0 11:5.7300998 12:5.1761497 13:0 14:0 15:0 
-10 1:0 2:0 3:0 4:4.4543473 5:5.6454469 6:0 7:0 8:0 9:0 10:3.871201 11:5.7300998 12:5.1761497 13:0 14:0 15:0 
-8.081990952729417 1:0 2:0 3:8.3793095 4:0 5:11.290894 6:0 7:0 8:0 9:0 10:0 11:5.7300998 12:5.1761497 13:0 14:0 15:3.3672958 
-2.450761832445793 1:0 2:0 3:8.3793095 4:0 5:0 6:0 7:0 8:0 9:0 10:0 11:5.7300998 12:5.1761497 13:0 14:0 15:3.3672958 
-10 1:0 2:0 3:0 4:0 5:0 6:0 7:0 8:0 9:0 10:0 11:5.7300998 12:0 13:0 14:0 15:0 
-10 1:0 2:0 3:0 4:0 5:0 6:0 7:0 8:0 9:0 10:3.871201 11:5.7300998 12:0 13:0 14:0 15:0 
-10 1:0 2:0 3:0 4:4.4543473 5:0 6:0 7:0 8:0 9:0 10:0 11:5.7300998 12:0 13:0 14:0 15:0 
-1.649866993597118 1:0 2:0 3:0 4:0 5:11.290894 6:0 7:0 8:0 9:0 10:0 11:5.7300998 12:5.1761497 13:0 14:0 15:0 
